Language model created by QuickLM on Thu Sep 20 22:12:26 EDT 2018
Copyright (c) 1996-2010 Carnegie Mellon University and Alexander I. Rudnicky

The model is in standard ARPA format, designed by Doug Paul while he was at MITRE.

The code that was used to produce this language model is available in Open Source.
Please visit http://www.speech.cs.cmu.edu/tools/ for more information

The (fixed) discount mass is 0.5. The backoffs are computed using the ratio method.
This model based on a corpus of 5 sentences and 7 words

\data\
ngram 1=7
ngram 2=10
ngram 3=5

\1-grams:
-0.7782 </s> -0.3010
-0.7782 <s> -0.2218
-1.4771 CAR -0.2218
-1.4771 CHAIR -0.2218
-1.4771 DONUT -0.2218
-1.4771 MAIKA -0.2218
-1.4771 PHONE -0.2218

\2-grams:
-1.0000 <s> CAR 0.0000
-1.0000 <s> CHAIR 0.0000
-1.0000 <s> DONUT 0.0000
-1.0000 <s> MAIKA 0.0000
-1.0000 <s> PHONE 0.0000
-0.3010 CAR </s> -0.3010
-0.3010 CHAIR </s> -0.3010
-0.3010 DONUT </s> -0.3010
-0.3010 MAIKA </s> -0.3010
-0.3010 PHONE </s> -0.3010

\3-grams:
-0.3010 <s> CAR </s>
-0.3010 <s> CHAIR </s>
-0.3010 <s> DONUT </s>
-0.3010 <s> MAIKA </s>
-0.3010 <s> PHONE </s>

\end\
